{
  "type": "NeuralNetwork",
  "sizes": [
    1024,
    64,
    64,
    4
  ],
  "layers": [
    {
      "weights": [],
      "biases": []
    },
    {
      "weights": [
        [
          -0.1157635748386383,
          -0.02918754145503044,
          0.10019776970148087,
          -0.18617035448551178,
          0.160640150308609,
          -0.02262064814567566,
          -0.09889231622219086,
          0.05903170630335808,
          -0.1529773771762848,
          -0.05723467469215393,
          -0.010509193874895573,
          0.13311414420604706,
          -0.16937147080898285,
          -0.1006450206041336,
          0.034366071224212646,
          -0.19489632546901703,
          0.10664955526590347,
          0.01037589367479086,
          -0.015166749246418476,
          -0.045041389763355255,
          0.09537824243307114,
          0.11268005520105362,
          0.1481296420097351,
          0.00783265009522438,
          -0.05222277715802193,
          0.009094255976378918,
          -0.09883734583854675,
          -0.17985735833644867,
          0.07944874465465546,
          -0.014920149929821491,
          -0.1783713847398758,
          -0.05832328274846077,
          -0.1870429813861847,
          0.02561291493475437,
          0.10177766531705856,
          0.11859872937202454,
          -0.017301488667726517,
          0.10615579783916473,
          -0.06532631814479828,
          -0.1479276865720749,
          0.08713921159505844,
          0.0784367173910141,
          0.16692419350147247,
          -0.09980248659849167,
          -0.18545128405094147,
          -0.09626412391662598,
          0.12065012753009796,
          0.10817886888980865,
          0.12729009985923767,
          -0.12964051961898804,
          0.1573081612586975,
          0.13662195205688477,
          0.14964966475963593,
          -0.10850910097360611,
          0.035439085215330124,
          -0.037020932883024216,
          0.15968385338783264,
          -0.14430730044841766,
          0.1359766572713852,
          0.07370206713676453,
          -0.05653790757060051,
          -0.14475303888320923,
          -0.03877810761332512,
          -0.14982961118221283,
          0.06421343982219696,
          -0.1811012476682663,
          -0.18929541110992432,
          0.037073928862810135,
          0.13905368745326996,
          -0.16146023571491241,
          -0.1935845911502838,
          -0.046627067029476166,
          -0.14698323607444763,
          -0.08367791026830673,
          -0.1501530408859253,
          -0.07104935497045517,
          0.02842659316956997,
          0.09295966476202011,
          0.010014137253165245,
          -0.024612603709101677,
          0.19459371268749237,
          0.12223140150308609,
          0.05390847101807594,
          -0.1626080721616745,
          0.13155071437358856,
          0.17095299065113068,
          -0.1094321757555008,
          0.020823638886213303,
          -0.18172575533390045,
          -0.020211316645145416,
          -0.06603435426950455,
          -0.1974845826625824,
          0.1070442944765091,
          0.18405666947364807,
          -0.10537070780992508,
          0.0014301914488896728,
          0.06180110573768616,
          0.17753610014915466,
          0.10254104435443878,
          -0.0016063543735072017,
          -0.08586206287145615,
          -0.17710794508457184,
          0.1481790840625763,
          0.16155864298343658,
          -0.13334079086780548,
          -0.006541742943227291,
          0.07974981516599655,
          -0.11295084655284882,
          -0.17958319187164307,
          -0.18454807996749878,
          -0.08260630071163177,
          -0.0199943445622921,
          -0.1116981953382492,
          -0.16144193708896637,
          0.1676664799451828,
          -0.0018736099591478705,
          0.19264185428619385,
          0.17912551760673523,
          -0.04872267693281174,
          -0.14871951937675476,
          0.16824068129062653,
          -0.09728644043207169,
          -0.19765092432498932,
          -0.07057037204504013,
          0.035357799381017685,
          0.15502434968948364,
          -0.04575957730412483,
          0.09144359827041626,
          -0.12012328952550888,
          -0.15780030190944672,
          0.13791236281394958,
          -0.03389865532517433,
          0.030177075415849686,
          0.1877431869506836,
          0.010897155851125717,
          -0.1353108286857605,
          -0.17202487587928772,
          0.195541650056839,
          0.1481427252292633,
          0.058480098843574524,
          0.1784810870885849,
          0.031962718814611435,
          0.1318892389535904,
          0.10483849048614502,
          0.18256287276744843,
          0.06664536893367767,
          0.042952049523591995,
          -0.019936883822083473,
          0.1949746161699295,
          0.05112462863326073,
          0.0573878288269043,
          0.12306708097457886,
          0.0019174059852957726,
          -0.013353003188967705,
          -0.06181012839078903,
          -0.1309603750705719,
          0.1824265718460083,
          0.18828736245632172,
          0.19197019934654236,
          -0.04735420271754265,
          0.18397609889507294,
          0.10513245314359665,
          0.07721135765314102,
          -0.1924065351486206,
          0.14157788455486298,
          0.12158804386854172,
          0.049860645085573196,
          0.18742702901363373,
          -0.09769763052463531,
          -0.05383439362049103,
          -0.10263556987047195,
          -0.04397926479578018,
          0.17263911664485931,
          -0.0419866144657135,
          -0.03311648964881897,
          -0.05483921244740486,
          -0.06940677762031555,
          -0.05603230744600296,
          0.08456772565841675,
          0.09733239561319351,
          -0.024345947429537773,
          0.12765036523342133,
          0.08991570770740509,
          0.1307401955127716,
          -0.026148127391934395,
          0.1481468826532364,
          -0.08777394145727158,
          0.020467285066843033,
          -0.11959829181432724,
          0.08120155334472656,
          0.10875260084867477,
          -0.19699981808662415,
          0.15027086436748505,
          0.031962908804416656,
          -0.010372493416070938,
          -0.19258128106594086,
          0.05295795574784279,
          -0.13371117413043976,
          0.06803341209888458,
          -0.05823598429560661,
          -0.15131354331970215,
          -0.07521238178014755,
          0.1958400160074234,
          0.189445361495018,
          0.055437881499528885,
          -0.09053148329257965,
          0.05429450422525406,
          -0.02908918634057045,
          0.19342537224292755,
          -0.06764932721853256,
          0.13154709339141846,
          0.15204989910125732,
          -0.1397131383419037,
          0.04579226300120354,
          -0.14525195956230164,
          -0.0755220428109169,
          0.10066422075033188,
          -0.03438711538910866,
          0.14091064035892487,
          0.09381318092346191,
          0.08021153509616852,
          -0.14305566251277924,
          -0.013551098294556141,
          -0.025958193466067314,
          -0.00884583592414856,
          0.0676664263010025,
          0.1557684987783432,
          0.15577104687690735,
          -0.14226187765598297,
          0.13551102578639984,
          0.11452361196279526,
          -0.11698521673679352,
          0.0623822845518589,
          -0.13256679475307465,
          0.19693395495414734,
          -0.12743540108203888,
          0.08924438804388046,
          -0.18291689455509186,
          0.012858735397458076,
          0.006058216094970703,
          0.054744988679885864,
          0.04199856519699097,
          -0.05906389281153679,
          -0.16974717378616333,
          -0.155131995677948,
          0.18844637274742126,
          -0.16895905137062073,
          0.14562712609767914,
          0.05009429156780243,
          -0.07452844828367233,
          0.17449742555618286,
          -0.0706784725189209,
          -0.09118223190307617,
          0.12662634253501892,
          -0.07023435831069946,
          0.04794846102595329,
          0.021093755960464478,
          0.021495671942830086,
          0.1198577806353569,
          0.08826212584972382,
          -0.10431693494319916,
          -0.15657974779605865,
          0.06320136040449142,
          0.05492258444428444,
          0.1306179016828537,
          -0.026024382561445236,
          -0.12205740809440613,
          0.09900803118944168,
          -0.06942439824342728,
          -0.08947602659463882,
          -0.08200085908174515,
          -0.11445783823728561,
          -0.06767596304416656,
          0.1400863081216812,
          -0.013865042477846146,
          -0.03028651513159275,
          0.13139142096042633,
          -0.0323280431330204,
          0.07821779698133469,
          -0.16163326799869537,
          0.09074893593788147,
          -0.1471935510635376,
          0.03220811113715172,
          0.008988628163933754,
          0.10704807192087173,
          0.1807602196931839,
          0.052332524210214615,
          -0.08867096155881882,
          -0.16182442009449005,
          -0.12299750000238419,
          0.10270471125841141,
          0.028267068788409233,
          -0.02324771322309971,
          -0.04121348634362221,
          0.09082868695259094,
          0.15081797540187836,
          0.1592414230108261,
          0.028391676023602486,
          0.1719178557395935,
          -0.1300346702337265,
          -0.04098736494779587,
          0.03938516601920128,
          0.118165023624897,
          -0.09604281932115555,
          -0.1775168627500534,
          -0.046867839992046356,
          -0.1376318782567978,
          0.07952747493982315,
          -0.07433420419692993,
          -0.021610328927636147,
          0.03815663978457451,
          -0.19144797325134277,
          -0.03961772844195366,
          0.013476033695042133,
          0.10441818833351135,
          0.04127029329538345,
          -0.006286280695348978,
          0.139519602060318,
          -0.12978875637054443,
          0.058250583708286285,
          0.0863724946975708,
          0.09338674694299698,
          0.00866177212446928,
          0.1682780683040619,
          0.0374053455889225,
          0.17295148968696594,
          0.04673437401652336,
          -0.17162898182868958,
          0.16912060976028442,
          0.057809703052043915,
          -0.010928764939308167,
          -0.13931384682655334,
          -0.0963641107082367,
          0.10419295728206635,
          0.16415460407733917,
          -0.09770086407661438,
          0.06398768723011017,
          -0.11663346737623215,
          0.02078109048306942,
          -0.04753018170595169,
          -0.17265963554382324,
          -0.09893454611301422,
          0.058568473905324936,
          0.13166800141334534,
          0.15613439679145813,
          -0.05062583088874817,
          -0.19269290566444397,
          -0.04792302846908569,
          -0.02225308120250702,
          -0.08737390488386154,
          -0.1028285026550293,
          0.1581464558839798,
          0.15877005457878113,
          -0.046006184071302414,
          -0.19121797382831573,
          -0.12192023545503616,
          -0.19543670117855072,
          -0.09677217155694962,
          0.12750546634197235,
          -0.015211539342999458,
          0.1674671769142151,
          0.029324248433113098,
          -0.03209633380174637,
          -0.10463649034500122,
          0.028443992137908936,
          -0.1728316843509674,
          0.06677909940481186,
          -0.16810737550258636,
          -0.12472745776176453,
          0.01725367084145546,
          -0.08958721160888672,
          0.03041493333876133,
          -0.18562641739845276,
          -0.15764352679252625,
          0.0477493554353714,
          0.15737807750701904,
          -0.06664799898862839,
          0.08378925174474716,
          0.17488975822925568,
          0.04544152319431305,
          -0.16791290044784546,
          -0.08317266404628754,
          -0.002722066594287753,
          0.1697847843170166,
          0.016379626467823982,
          0.18769758939743042,
          0.00644640764221549,
          -0.10872038453817368,
          0.000924217514693737,
          -0.1366400420665741,
          0.13923104107379913,
          -0.05411430820822716,
          0.1033020168542862,
          0.09280567616224289,
          0.028534360229969025,
          -0.06402323395013809,
          -0.047122541815042496,
          -0.021644102409482002,
          0.06204308196902275,
          0.1924310326576233,
          0.14340636134147644,
          0.07623951882123947,
          -0.06335543096065521,
          0.1645491123199463,
          -0.1302241086959839,
          -0.19570571184158325,
          0.11894373595714569,
          0.05542923882603645,
          -0.19226229190826416,
          -0.030869588255882263,
          -0.004320760257542133,
          -0.15879401564598083,
          0.19166648387908936,
          0.017792673781514168,
          -0.06061781942844391,
          -0.1845804750919342,
          -0.08281354606151581,
          0.19810126721858978,
          0.010889444500207901,
          -0.13937552273273468,
          0.029610594734549522,
          -0.06244359537959099,
          -0.035453908145427704,
          -0.1873946487903595,
          -0.018436474725604057,
          0.11711329221725464,
          -0.12040531635284424,
          -0.015459844842553139,
          -0.12030680477619171,
          0.09049467742443085,
          -0.05223599448800087,
          0.08454715460538864,
          -0.04126079007983208,
          0.06601021438837051,
          0.021541941910982132,
          0.1616269052028656,
          -0.14248818159103394,
          -0.0030453328508883715,
          -0.0507817268371582,
          -0.08651178330183029,
          -0.00950577575713396,
          0.09425413608551025,
          -0.08408467471599579,
          0.032661646604537964,
          0.029907098039984703,
          0.04102705046534538,
          0.1422009915113449,
          -0.15797299146652222,
          -0.001601370400749147,
          0.16265223920345306,
          0.19862224161624908,
          -0.19576896727085114,
          0.007816861383616924,
          -0.12782022356987,
          -0.10744068026542664,
          -0.19970154762268066,
          -0.02009962685406208,
          -0.016794202849268913,
          -0.053944047540426254,
          0.06595718860626221,
          0.013012719340622425,
          0.1052069142460823,
          0.16001437604427338,
          0.06545422226190567,
          -0.05479750409722328,
          -0.08781415224075317,
          0.1691576987504959,
          0.08441554009914398,
          -0.18385528028011322,
          -0.15559202432632446,
          -0.00606034230440855,
          -0.06906884908676147,
          0.16217927634716034,
          -0.11334116756916046,
          0.19123803079128265,
          0.021091043949127197,
          0.05385803431272507,
          -0.18778209388256073,
          -0.005107743665575981,
          -0.157789409160614,
          0.09717835485935211,
          -0.15229426324367523,
          -0.031256016343832016,
          0.05541142821311951,
          0.1971616894006729,
          0.1082686260342598,
          -0.1855786293745041,
          -0.18323689699172974,
          -0.11088689416646957,
          -0.13840064406394958,
          -0.027317646890878677,
          -0.17662686109542847,
          -0.17873886227607727,
          -0.1532713770866394,
          0.031585048884153366,
          0.14333568513393402,
          -0.11556418240070343,
          -0.1360652595758438,
          0.017182521522045135,
          0.10662767291069031,
          0.06905330717563629,
          -0.03021516650915146,
          0.03590838238596916,
          0.055679529905319214,
          0.00988148245960474,
          0.1689845472574234,
          -0.04356813058257103,
          -0.08948751538991928,
          -0.17168472707271576,
          -0.06448058784008026,
          0.01135104987770319,
          0.059317465871572495,
          0.10210324823856354,
          -0.1446305364370346,
          -0.12020674347877502,
          0.036800313740968704,
          0.036312732845544815,
          -0.022684695199131966,
          0.017166443169116974,
          0.1503532975912094,
          -0.09741448611021042,
          0.15649530291557312,
          -0.10487725585699081,
          -0.03358408436179161,
          0.15798981487751007,
          -0.05406967177987099,
          -0.00022407628421206027,
          0.14183402061462402,
          0.03599949926137924,
          0.04785217344760895,
          -0.133905827999115,
          0.15674611926078796,
          0.053726647049188614,
          0.11471441388130188,
          -0.1854615956544876,
          0.05122672766447067,
          -0.11736108362674713,
          0.023518472909927368,
          0.03416238725185394,
          -0.034754589200019836,
          -0.13601775467395782,
          0.1467282623052597,
          0.18366321921348572,
          0.00588887557387352,
          -0.1924644261598587,
          0.18367211520671844,
          0.07468711584806442,
          -0.11029456555843353,
          -0.08144450932741165,
          0.0638142004609108,
          -0.06505671888589859,
          0.18488121032714844,
          0.001706940121948719,
          -0.057145968079566956,
          -0.008928745985031128,
          -0.06874378025531769,
          0.12426518648862839,
          -0.019471745938062668,
          -0.04057026654481888,
          0.11995743960142136,
          -0.19974051415920258,
          -0.1257789134979248,
          0.01890600472688675,
          0.004081541672348976,
          0.10031594336032867,
          -0.06723041087388992,
          -0.035891342908144,
          -0.0687192752957344,
          -0.1878141313791275,
          -0.18653352558612823,
          -0.1471334844827652,
          0.11861609667539597,
          0.09522029757499695,
          0.10689476132392883,
          0.03149666264653206,
          -0.10165021568536758,
          -0.15797296166419983,
          0.10062427073717117,
          0.06687971949577332,
          0.133064404129982,
          -0.0515076108276844,
          0.12874214351177216,
          -0.06766396015882492,
          -0.02571573667228222,
          0.0668451115489006,
          0.027488533407449722,
          -0.006382071878761053,
          0.02757570706307888,
          -0.017671316862106323,
          0.054854072630405426,
          -0.18666110932826996,
          0.18274590373039246,
          0.09300176054239273,
          -0.17557170987129211,
          -0.038128096610307693,
          0.04410175979137421,
          0.003993009217083454,
          0.06183579936623573,
          0.05548202991485596,
          0.007832360453903675,
          0.16069744527339935,
          -0.02411317452788353,
          -0.1767692267894745,
          -0.02532806061208248,
          -0.19592192769050598,
          -0.002431436674669385,
          0.024758383631706238,
          0.035774677991867065,
          0.12158230692148209,
          0.08531255275011063,
          0.1289883404970169,
          -0.16371667385101318,
          0.14193788170814514,
          0.1383766233921051,
          0.1925009787082672,
          0.17938145995140076,
          -0.1221616193652153,
          0.15405869483947754,
          -0.10110679268836975,
          -0.01758848875761032,
          0.0847020149230957,
          -0.04973527789115906,
          0.12015581876039505,
          -0.06569486111402512,
          -0.11126744002103806,
          -0.14333322644233704,
          0.14837798476219177,
          -0.003150342497974634,
          -0.018610674887895584,
          0.036809951066970825,
          0.12444325536489487,
          -0.15394610166549683,
          0.049512829631567,
          0.13299323618412018,
          0.041284505277872086,
          -0.06568140536546707,
          -0.013880600221455097,
          0.06045067310333252,
          0.034332096576690674,
          -0.17565307021141052,
          0.08301699906587601,
          0.17456401884555817,
          0.06456522643566132,
          -0.06813520938158035,
          0.1447000503540039,
          0.08868438005447388,
          -0.13553951680660248,
          0.022124534472823143,
          -0.19552676379680634,
          0.07737380266189575,
          0.029392534866929054,
          0.15460728108882904,
          0.036678213626146317,
          -0.1356680691242218,
          -0.14381420612335205,
          0.09650596231222153,
          0.15163186192512512,
          0.17592814564704895,
          -0.09437654912471771,
          -0.14130041003227234,
          0.0069453660398721695,
          -0.01547508966177702,
          0.005401203408837318,
          0.021877311170101166,
          0.06032050400972366,
          0.03906658664345741,
          -0.13638515770435333,
          0.1427408903837204,
          0.17865228652954102,
          0.17096489667892456,
          0.016384724527597427,
          -0.023608870804309845,
          0.13730746507644653,
          0.0863032341003418,
          -0.1567130833864212,
          0.0240178182721138,
          -0.07500525563955307,
          0.06534912437200546,
          -0.17328286170959473,
          0.010752355679869652,
          0.061739835888147354,
          -0.13936810195446014,
          -0.003401375375688076,
          -0.1574053168296814,
          -0.1698393076658249,
          -0.08931635320186615,
          0.13462702929973602,
          -0.009969190694391727,
          0.07290897518396378,
          0.1995638906955719,
          0.17928236722946167,
          0.16306281089782715,
          0.05125511810183525,
          0.08758749812841415,
          0.09784939885139465,
          0.08841737359762192,
          0.00074780109571293,
          0.18890298902988434,
          0.06541918963193893,
          0.09201940894126892,
          -0.024085216224193573,
          -0.009264436550438404,
          0.13666504621505737,
          -0.10790597647428513,
          0.09310414642095566,
          0.1591869294643402,
          0.05576929822564125,
          0.12032496929168701,
          0.17166921496391296,
          -0.027148613706231117,
          -0.16558139026165009,
          0.10566724091768265,
          0.15347300469875336,
          -0.15595319867134094,
          -0.14847131073474884,
          -0.0731128454208374,
          0.16072337329387665,
          0.1645354926586151,
          0.18318819999694824,
          -0.08583377301692963,
          0.06850261986255646,
          -0.08617865294218063,
          -0.000339526537572965,
          0.13391222059726715,
          0.022718055173754692,
          0.009161275811493397,
          -0.07437432557344437,
          0.16864290833473206,
          -0.07250166684389114,
          0.002663766499608755,
          -0.0594920851290226,
          0.04926639795303345,
          -0.17760315537452698,
          -0.07358118146657944,
          -0.18379242718219757,
          0.1437821090221405,
          -0.1263846457004547,
          -0.028221433982253075,
          -0.018970957025885582,
          0.1619708091020584,
          0.1711091697216034,
          0.14662407338619232,
          0.17807506024837494,
          0.04944823682308197,
          0.02010592818260193,
          0.1164221242070198,
          -0.011365449987351894,
          0.024531470611691475,
          -0.10508700460195541,
          0.1194860190153122,
          -0.049815770238637924,
          -0.04921785369515419,
          0.1990094631910324,
          -0.08235202729701996,
          0.16350524127483368,
          -0.1382571905851364,
          -0.14676284790039062,
          0.09878071397542953,
          0.13729411363601685,
          0.11937759816646576,
          -0.014163331128656864,
          -0.13046376407146454,
          0.15262097120285034,
          0.023594772443175316,
          0.11471536755561829,
          0.012678757309913635,
          0.15692031383514404,
          0.16487252712249756,
          -0.03215306997299194,
          0.05543189123272896,
          0.12678737938404083,
          0.004215857479721308,
          0.1905319094657898,
          0.02243194356560707,
          0.17128747701644897,
          0.003050417173653841,
          0.1865447759628296,
          -0.12097448110580444,
          0.18942752480506897,
          0.10983157157897949,
          -0.057652026414871216,
          0.05130697414278984,
          -0.09283629804849625,
          0.17288565635681152,
          -0.044923316687345505,
          -0.14667831361293793,
          -0.056417316198349,
          -0.1335296481847763,
          -0.16854146122932434,
          -0.08734185993671417,
          -0.05384058877825737,
          0.1222398653626442,
          0.17855173349380493,
          -0.09926712512969971,
          -0.13165490329265594,
          -0.08529447764158249,
          -0.10347770154476166,
          -0.07294558733701706,
          0.11410892754793167,
          -0.1939806193113327,
          0.02817346341907978,
          -0.038339901715517044,
          -0.17963524162769318,
          -0.04607367515563965,
          0.10642626881599426,
          0.012072235345840454,
          0.14864614605903625,
          0.13560931384563446,
          0.06508009880781174,
          0.13592150807380676,
          -0.08428887277841568,
          -0.1618819534778595,
          0.030012547969818115,
          -0.10685478895902634,
          0.04938865825533867,
          -0.008953243494033813,
          0.0661424770951271,
          -0.012969176284968853,
          -0.048934902995824814,
          0.07686494290828705,
          0.044573988765478134,
          0.05268066003918648,
          0.15320004522800446,
          -0.03061031363904476,
          0.13005277514457703,
          -0.1220710501074791,
          0.06705285608768463,
          -0.18599554896354675,
          0.1205163225531578,
          0.009730685502290726,
          0.021168315783143044,
          0.07610176503658295,
          0.12367721647024155,
          0.16028821468353271,
          0.06419646739959717,
          0.03787821903824806,
          0.06387422233819962,
          0.03888466954231262,
          -0.17445510625839233,
          0.06264544278383255,
          0.17121641337871552,
          -0.1510210782289505,
          0.1761753112077713,
          0.0355609655380249,
          -0.08579234033823013,
          -0.033761657774448395,
          0.06096341833472252,
          0.14372754096984863,
          0.07071036100387573,
          0.018704796209931374,
          0.13440775871276855,
          -0.16205987334251404,
          -0.10084700584411621,
          -0.11396770179271698,
          0.04196837171912193,
          0.02947627380490303,
          0.06700451672077179,
          0.1871376484632492,
          0.09361962974071503,
          0.052742764353752136,
          -0.17637018859386444,
          -0.10540720820426941,
          -0.10493426024913788,
          -0.04817236214876175,
          0.0032777725718915462,
          -0.09897205233573914,
          0.061857860535383224,
          -0.06819192320108414,
          0.1344672292470932,
          0.05293198302388191,
          0.11949876695871353,
          0.17685025930404663,
          -0.12020453810691833,
          -0.18294697999954224,
          -0.10181818157434464,
          0.06554920971393585,
          0.12173578143119812,
          0.18632686138153076,
          -0.17401732504367828,
          0.012358397245407104,
          0.001312450971454382,
          0.02285940758883953,
          0.05463198199868202,
          0.11490081995725632,
          0.15717713534832,
          0.17403720319271088,
          -0.18479175865650177,
          0.03137485682964325,
          -0.18656660616397858,
          -0.04129805788397789,
          0.10129407048225403,
          -0.11443841457366943,
          0.039881251752376556,
          -0.18692652881145477,
          0.16404202580451965,
          0.10289960354566574,
          -0.12872321903705597,
          -0.10431941598653793,
          -0.0567338801920414,
          0.15210406482219696,
          0.08525848388671875,
          0.050969693809747696,
          -0.06739405542612076,
          0.06714126467704773,
          -0.09236957132816315,
          -0.043812915682792664,
          0.08782389760017395,
          0.10934324562549591,
          -0.08468116819858551,
          -0.09321276098489761,
          0.039300184696912766,
          -0.13179965317249298,
          -0.008475981652736664,
          -0.021499723196029663,
          0.16073016822338104,
          -0.14250414073467255,
          -0.1913021206855774,
          0.0733499825000763,
          -0.009014233946800232,
          -0.11401797086000443,
          0.007375182583928108,
          0.0229512806981802,
          0.012455776333808899,
          -0.04773319140076637,
          -0.06864234805107117,
          0.12038993835449219,
          0.19064390659332275,
          -0.17882826924324036,
          0.1252201646566391,
          -0.11589918285608292,
          -0.06103464588522911,
          -0.18229849636554718,
          0.07972082495689392,
          0.1993258148431778,
          -0.19977691769599915,
          -0.08648921549320221,
          -0.17099840939044952,
          -0.006241457536816597,
          -0.1674993336200714,
          -0.19344499707221985,
          -0.09886878728866577,
          0.15526965260505676,
          0.18347856402397156,
          -0.07051724195480347,
          -0.08765994012355804,
          0.12881353497505188,
          -0.19341398775577545,
          0.12320905178785324,
          -0.12118058651685715,
          -0.09615813195705414,
          -0.046150919049978256,
          0.015464480966329575,
          -0.06247302517294884,
          0.09676486998796463,
          -0.01615292765200138,
          0.15297527611255646,
          0.1305069625377655,
          0.1402818113565445,
          -0.08152621984481812,
          0.09641066193580627,
          0.012918391264975071,
          0.17832347750663757,
          0.03293857350945473,
          -0.06269096583127975,
          0.1920953392982483,
          -0.1695479452610016,
          -0.06238953024148941,
          -0.02077106386423111,
          0.09333474934101105,
          -0.18808265030384064,
          0.030476292595267296,
          -0.1489151567220688,
          0.10882627964019775,
          -0.07583100348711014,
          -0.12461697310209274,
          -0.021532675251364708,
          -0.17372673749923706,
          -0.1862441748380661,
          -0.04483244568109512,
          -0.09442777186632156,
          0.07806384563446045,
          0.11331053823232651,
          -0.18809874355793,
          -0.16593074798583984,
          -0.11955313384532928,
          0.15708741545677185,
          0.14886842668056488,
          0.0036404477432370186,
          -0.0338282473385334,
          -0.062015023082494736,
          0.15011538565158844,
          -0.17826005816459656,
          -0.12028522789478302,
          -0.16207289695739746,
          -0.0561201348900795,
          -0.05307916924357414,
          -0.06273787468671799,
          -0.1938558965921402,
          -0.02267259918153286,
          0.1839880645275116,
          -0.14593125879764557,
          -0.18744336068630219,
          0.08346536755561829,
          -0.17381350696086884,
          0.13512003421783447,
          0.010838186368346214,
          -0.01888860948383808,
          -0.0765514001250267,
          0.043914634734392166,
          0.19628825783729553,
          0.09926433116197586,
          0.1033487543463707,
          0.0695122629404068,
          -0.19247792661190033,
          0.16907836496829987,
          0.1980707198381424,
          0.03038947656750679,
          0.06146463379263878,
          -0.05034306272864342,
          -0.04256679490208626,
          -0.11299237608909607,
          -0.1706954389810562,
          -0.1681039184331894,
          -0.07244589924812317
        ],
        [
          -0.05903397873044014,
          0.009963239543139935,
          0.013638845644891262,
          0.07539524137973785,
          0.18480847775936127,
          -0.1191784143447876,
          0.11386771500110626,
          0.020633958280086517,
          -0.19027432799339294,
          -0.14886066317558289,
          0.17720121145248413,
          0.15188981592655182,
          -0.05443647876381874,
          -0.1937703788280487,
          -0.1971890777349472,
          -0.14766773581504822,
          0.1771605908870697,
          0.19859172403812408,
          0.08060835301876068,
          0.11199253052473068,
          -0.1397738754749298,
          -0.12993565201759338,
          -0.14730648696422577,
          -0.08827489614486694,
          -0.19362719357013702,
          -0.06330766528844833,
          0.038704242557287216,
          -0.00014072947669774294,
          -0.029639074578881264,
          0.12360524386167526,
          0.18600164353847504,
          0.13077755272388458,
          0.009992343373596668,
          -0.035701122134923935,
          0.12368693947792053,
          -0.18203899264335632,
          0.1460839807987213,
          0.11101684719324112,
          -0.12825407087802887,
          0.1548980325460434,
          0.03321010246872902,
          0.07924727350473404,
          -0.07371709495782852,
          0.17517809569835663,
          -0.16177883744239807,
          -0.13322006165981293,
          0.03867596015334129,
          0.13826000690460205,
          -0.17326492071151733,
          0.004886450245976448,
          -0.10946384817361832,
          -0.07769518345594406,
          -0.12822091579437256,
          -0.06909755617380142,
          0.00952062476426363,
          0.01625778153538704,
          -0.10899581015110016,
          0.030028874054551125,
          0.011558111757040024,
          0.03597233444452286,
          0.17710718512535095,
          -0.08888415992259979,
          0.006283388007432222,
          -0.09508492797613144,
          -0.010616844519972801,
          -0.07158467173576355,
          0.1655106395483017,
          -0.16933833062648773,
          0.02299477905035019,
          -0.11226937174797058,
          -0.025246484205126762,
          0.10608885437250137,
          0.09316755086183548,
          0.16116030514240265,
          0.16354067623615265,
          0.052876077592372894,
          -0.05413017049431801,
          0.16076527535915375,
          -0.14859578013420105,
          -0.1269790679216385,
          0.12249602377414703,
          -0.04024298116564751,
          -0.16704288125038147,
          -0.14339306950569153,
          -0.17387451231479645,
          -0.14864082634449005,
          0.11040687561035156,
          -0.18027091026306152,
          -0.03675143048167229,
          -0.11500204354524612,
          -0.024672498926520348,
          0.10957948863506317,
          -0.08055143803358078,
          -0.14939381182193756,
          0.06564449518918991,
          0.17884638905525208,
          0.05847182124853134,
          -0.07541026920080185,
          -0.1380145102739334,
          -0.04835476726293564,
          0.19890493154525757,
          -0.14874373376369476,
          0.04996143653988838,
          -0.06662121415138245,
          0.06412016600370407,
          0.04426714777946472,
          0.014078747481107712,
          -0.11448187381029129,
          0.17232529819011688,
          0.061337877064943314,
          0.03914622217416763,
          -0.18517063558101654,
          -0.15035678446292877,
          0.003655127715319395,
          -0.09778065979480743,
          -0.009624112397432327,
          0.02445915713906288,
          0.009577152319252491,
          0.13277678191661835,
          0.12282340973615646,
          -0.12437338382005692,
          0.16664858162403107,
          -0.12549781799316406,
          -0.08136612921953201,
          -0.07804359495639801,
          0.034267403185367584,
          -0.0033201384358108044,
          0.042571280151605606,
          -0.1689162701368332,
          0.17846615612506866,
          0.1624249964952469,
          -0.1263558268547058,
          -0.014626515097916126,
          -0.14350441098213196,
          0.08084692060947418,
          -0.06712094694375992,
          -0.18801313638687134,
          -0.1954074203968048,
          0.0174727700650692,
          -0.03318210318684578,
          -0.19491715729236603,
          0.08872174471616745,
          -0.10899641364812851,
          -0.03810406103730202,
          -0.07385673373937607,
          0.15331821143627167,
          -0.19367234408855438,
          -0.0986071303486824,
          -0.12096121162176132,
          0.17298376560211182,
          0.17243920266628265,
          0.13383792340755463,
          0.031947072595357895,
          -0.08355951309204102,
          0.06772873550653458,
          -0.023278972133994102,
          -0.1574956476688385,
          -0.18364189565181732,
          0.01491048838943243,
          0.18125951290130615,
          0.12778952717781067,
          0.08351457118988037,
          -0.11183255165815353,
          0.16345374286174774,
          -0.06934025138616562,
          -0.08817114681005478,
          0.0557149276137352,
          0.004083557054400444,
          0.03361552581191063,
          0.11302714049816132,
          0.0037092624697834253,
          0.19531820714473724,
          0.16718332469463348,
          0.12987159192562103,
          -0.003936087246984243,
          0.050599243491888046,
          -0.007941405288875103,
          -0.07967192679643631,
          0.1936238706111908,
          -0.1373574435710907,
          0.04820181429386139,
          0.023884069174528122,
          -0.07657983899116516,
          0.13611388206481934,
          -0.08207608014345169,
          0.11313363909721375,
          0.09794069826602936,
          0.18438546359539032,
          0.011047783307731152,
          0.057258978486061096,
          -0.04935535043478012,
          0.09035541862249374,
          -0.051583435386419296,
          -0.1652715504169464,
          -0.1849973499774933,
          -0.05516155809164047,
          0.10151641815900803,
          -0.18603993952274323,
          -0.0844215601682663,
          -0.07830624282360077,
          -0.10307687520980835,
          -0.04552168399095535,
          0.1854284107685089,
          -0.08321896195411682,
          -0.1946708858013153,
          -0.11150500923395157,
          -0.18166308104991913,
          -0.16611303389072418,
          -0.059449467808008194,
          -0.13435375690460205,
          0.19467651844024658,
          0.19857074320316315,
          -0.07149036973714828,
          0.0427836999297142,
          0.10071177780628204,
          0.18542955815792084,
          -0.10147500038146973,
          0.15841570496559143,
          -0.0009212186560034752,
          -0.06146718189120293,
          -0.12960748374462128,
          -0.020773552358150482,
          0.027370920404791832,
          0.021872730925679207,
          -0.18339471518993378,
          0.019343139603734016,
          0.10337892919778824,
          -0.16911180317401886,
          -0.08546339720487595,
          -0.16591361165046692,
          0.04534882307052612,
          -0.19661171734333038,
          -0.152072936296463,
          0.09280126541852951,
          -0.06439170986413956,
          -0.010007544420659542,
          -0.01678031124174595,
          -0.056607991456985474,
          0.05965745449066162,
          0.14019761979579926,
          0.08870052546262741,
          -0.19425924122333527,
          -0.027839429676532745,
          0.19454053044319153,
          0.13278089463710785,
          0.16289399564266205,
          0.015211950056254864,
          0.03091559186577797,
          -0.047135140746831894,
          -0.18062090873718262,
          0.15681397914886475,
          -0.16460338234901428,
          -0.19623132050037384,
          0.06020372733473778,
          -0.037951719015836716,
          -0.06568466871976852,
          -0.03224856033921242,
          -0.05181735381484032,
          0.15857991576194763,
          -0.08286872506141663,
          0.08278775960206985,
          -0.1910475790500641,
          -0.04755569249391556,
          -0.08313736319541931,
          -0.00617531081661582,
          0.07177040725946426,
          0.12752628326416016,
          0.18422940373420715,
          0.1029835194349289,
          -0.13888287544250488,
          0.011192530393600464,
          0.11956779658794403,
          0.06692122668027878,
          0.08487915247678757,
          0.10344924032688141,
          -0.09578841924667358,
          0.09895525872707367,
          0.11761442571878433,
          0.1977721005678177,
          -0.1749367117881775,
          0.08539406210184097,
          0.0738871619105339,
          0.007001095451414585,
          0.1746016889810562,
          -0.08143405616283417,
          -0.09167848527431488,
          0.17844796180725098,
          0.19715210795402527,
          0.13948100805282593,
          0.14260831475257874,
          0.18736982345581055,
          -0.04629763215780258,
          -0.049227286130189896,
          -0.12022265791893005,
          -0.08176097273826599,
          0.18565046787261963,
          0.06250567734241486,
          -0.09683045744895935,
          -0.08290683478116989,
          -0.17202763259410858,
          0.1565328985452652,
          0.14489628374576569,
          -0.009041106328368187,
          0.13412286341190338,
          0.19043757021427155,
          -0.03775409236550331,
          -0.14760766923427582,
          -0.13388459384441376,
          -0.08377808332443237,
          0.12279504537582397,
          0.09598380327224731,
          -0.12858927249908447,
          0.001300528645515442,
          -0.021943146362900734,
          -0.1803111582994461,
          -0.08617142587900162,
          -0.13312537968158722,
          -0.07616466283798218,
          0.08551019430160522,
          -0.1527707576751709,
          -0.16406185925006866,
          0.015841957181692123,
          -0.1536647081375122,
          0.005908779334276915,
          -0.18406488001346588,
          -0.02937493845820427,
          -0.08929223567247391,
          0.09139326214790344,
          -0.1921754777431488,
          -0.09169931709766388,
          0.17582610249519348,
          -0.06596999615430832,
          0.10801498591899872,
          -0.19674398005008698,
          -0.1427200883626938,
          -0.030302129685878754,
          -0.0714326798915863,
          0.11093244701623917,
          0.017390305176377296,
          0.1588192731142044,
          -0.1099410355091095,
          -0.15517760813236237,
          -0.0390644408762455,
          0.11164535582065582,
          0.12286794185638428,
          0.18199105560779572,
          0.01316817756742239,
          0.09541600942611694,
          0.039086468517780304,
          -0.14993032813072205,
          0.015927754342556,
          -0.11731788516044617,
          -0.17384502291679382,
          0.15599606931209564,
          0.004568836186081171,
          -0.04571247100830078,
          0.003429955802857876,
          0.067111074924469,
          0.15816053748130798,
          0.11639759689569473,
          0.16776135563850403,
          0.19393476843833923,
          0.0920436680316925,
          -0.08488292247056961,
          -0.15877608954906464,
          -0.05418267101049423,
          0.0023866069968789816,
          0.12019834667444229,
          -0.04466356337070465,
          0.19842849671840668,
          0.06779924780130386,
          -0.08973264694213867,
          0.15938006341457367,
          0.09056062996387482,
          0.08386816829442978,
          -0.020027946680784225,
          -0.0019125594990327954,
          -0.052966196089982986,
          -0.18584255874156952,
          0.015538257546722889,
          -0.10226579755544662,
          -0.05714736506342888,
          0.06532396376132965,
          -0.029788320884108543,
          -0.0704636201262474,
          -0.05432911217212677,
          -0.18757005035877228,
          0.19415739178657532,
          -0.13610024750232697,
          0.18803225457668304,
          0.0655406191945076,
          -0.1886264681816101,
          -0.027783166617155075,
          0.03588976711034775,
          -0.11903854459524155,
          0.04797163978219032,
          0.061335183680057526,
          -0.027466949075460434,
          0.12908191978931427,
          0.07564673572778702,
          0.10130184143781662,
          -0.09172314405441284,
          0.11191536486148834,
          -0.14896723628044128,
          0.13321362435817719,
          0.11123290657997131,
          -0.139149472117424,
          -0.05683399364352226,
          0.09442361444234848,
          0.06861912459135056,
          -0.17361626029014587,
          -0.13106286525726318,
          0.14102868735790253,
          -0.17422699928283691,
          -0.14027538895606995,
          -0.03566630557179451,
          0.09401430934667587,
          -0.11005225777626038,
          -0.014893343672156334,
          0.1010812520980835,
          0.08994374424219131,
          0.1530703902244568,
          -0.1507973074913025,
          -0.07469898462295532,
          -0.09371504932641983,
          0.1693522036075592,
          -0.01985808089375496,
          0.1919499635696411,
          0.19545038044452667,
          0.16681885719299316,
          -0.10284647345542908,
          -0.0367467999458313,
          -0.09045667201280594,
          -0.19780872762203217,
          0.1980818212032318,
          -0.11534310132265091,
          0.024014057591557503,
          -0.09174947440624237,
          0.05500909686088562,
          0.19132685661315918,
          -0.14625704288482666,
          0.07792727649211884,
          -0.19761349260807037,
          -0.09139060974121094,
          -0.10657856613397598,
          -0.16616451740264893,
          -0.16743573546409607,
          -0.016999414190649986,
          0.06136605143547058,
          -0.1953580379486084,
          0.1488981544971466,
          -0.029203619807958603,
          0.1474449336528778,
          0.13612858951091766,
          -0.041030388325452805,
          -0.14435936510562897,
          0.1054731160402298,
          0.062254298478364944,
          -0.14999645948410034,
          -0.03803258389234543,
          0.19333361089229584,
          0.08302589505910873,
          0.1728978455066681,
          0.17979754507541656,
          0.05119732394814491,
          -0.16871938109397888,
          -0.05169811472296715,
          0.19460685551166534,
          -0.0280219167470932,
          0.19863392412662506,
          0.05957051366567612,
          -0.11958678066730499,
          0.19975201785564423,
          0.11278362572193146,
          -0.11125235259532928,
          0.14805175364017487,
          -0.010999268852174282,
          -0.15504279732704163,
          0.02888159640133381,
          -0.12795321643352509,
          0.04498668387532234,
          0.10138198733329773,
          0.10018880665302277,
          0.1916261613368988,
          0.04431403428316116,
          -0.1849246770143509,
          -0.0013517419574782252,
          -0.17755162715911865,
          0.09274138510227203,
          0.1642577350139618,
          0.07019658386707306,
          -0.13177888095378876,
          -0.12620088458061218,
          0.014578702859580517,
          -0.04064232110977173,
          -0.10616765916347504,
          -0.16572101414203644,
          -0.08473909646272659,
          -0.052083492279052734,
          0.1965979039669037,
          -0.19119064509868622,
          -0.042803067713975906,
          -0.14096711575984955,
          0.1848444789648056,
          0.032537903636693954,
          -0.12113216519355774,
          0.13829997181892395,
          -0.043602392077445984,
          0.17992712557315826,
          -0.19618313014507294,
          -0.166756734251976,
          0.19156956672668457,
          -0.03110191784799099,
          0.1225462555885315,
          -0.08659534901380539,
          0.03839755803346634,
          0.1735556721687317,
          0.028099866583943367,
          0.07013863325119019,
          -0.19083121418952942,
          0.1325378119945526,
          0.005072894971817732,
          -0.00174149707891047,
          -0.0011552090290933847,
          -0.17785514891147614,
          -0.056303683668375015,
          -0.05253748595714569,
          -0.18460120260715485,
          0.08250498026609421,
          0.02275310456752777,
          -0.04513157159090042,
          0.06635548174381256,
          -0.04054614529013634,
          0.04106380045413971,
          -0.1260882467031479,
          -0.05244064703583717,
          0.11189407110214233,
          -0.06409230828285217,
          0.1965789943933487,
          -0.12852565944194794,
          0.14481501281261444,
          0.08785644918680191,
          0.1618342101573944,
          0.010468189604580402,
          -0.03840117156505585,
          -0.1601269692182541,
          -0.15408504009246826,
          0.16469182074069977,
          -0.13795004785060883,
          0.13330994546413422,
          0.031061334535479546,
          -0.0923239216208458,
          0.07401745021343231,
          0.05934130400419235,
          0.11811379343271255,
          0.009633774869143963,
          -0.05385312810540199,
          0.19094525277614594,
          0.17336426675319672,
          0.07126034051179886,
          -0.14936994016170502,
          -0.016518164426088333,
          0.19955696165561676,
          -0.15172512829303741,
          -0.05627394840121269,
          -0.09851479530334473,
          0.03757145628333092,
          -0.0974690169095993,
          -0.006840389687567949,
          -0.14195507764816284,
          0.0022348344791680574,
          0.12414848059415817,
          -0.1255347579717636,
          -0.17578282952308655,
          -0.059789061546325684,
          0.056752633303403854,
          -0.039842650294303894,
          0.14143744111061096,
          0.14642974734306335,
          0.11990584433078766,
          -0.0996115505695343,
          -0.1055976077914238,
          0.13762353360652924,
          -0.016559001058340073,
          -0.05932197719812393,
          0.1418466567993164,
          -0.03564749285578728,
          0.10301868617534637,
          0.17033639550209045,
          0.08414681255817413,
          -0.1756535917520523,
          -0.025908716022968292,
          -0.11668561398983002,
          0.018849270418286324,
          0.13974134624004364,
          0.16268375515937805,
          0.18703998625278473,
          -0.04674246534705162,
          -0.06534963846206665,
          -0.1771496683359146,
          0.11067397892475128,
          -0.12757936120033264,
          -0.05686985328793526,
          -0.08858274668455124,
          0.1586284637451172,
          -0.18104635179042816,
          -0.08348233252763748,
          0.09645609557628632,
          -0.16409654915332794,
          0.19899989664554596,
          -0.02182871848344803,
          -0.07958279550075531,
          -0.13871926069259644,
          0.03335428237915039,
          0.07706575095653534,
          -0.0062766848132014275,
          0.03348805382847786,
          -0.07043500989675522,
          0.047206562012434006,
          -0.14471840858459473,
          0.033807333558797836,
          0.036013562232255936,
          -0.09513095766305923,
          0.1886250078678131,
          -0.03101993352174759,
          -0.14629651606082916,
          -0.15053190290927887,
          0.042083390057086945,
          0.07951861619949341,
          -0.09078238159418106,
          0.19969892501831055,
          0.10430052131414413,
          -0.014413295313715935,
          -0.1696794182062149,
          -0.12926843762397766,
          -0.10719943046569824,
          0.1550104171037674,
          -0.1807292103767395,
          -0.18110328912734985,
          0.15690559148788452,
          -0.16801072657108307,
          -0.11378943175077438,
          0.05500037595629692,
          0.03475332260131836,
          0.19759701192378998,
          -0.15865138173103333,
          0.037116073071956635,
          0.0980357751250267,
          -0.015507823787629604,
          0.12275438755750656,
          0.036068446934223175,
          0.10133164376020432,
          -0.16441978514194489,
          -0.03081156127154827,
          -0.15035593509674072,
          -0.03358468413352966,
          0.018021250143647194,
          -0.1885005086660385,
          -0.09778328984975815,
          -0.14410531520843506,
          -0.1459009051322937,
          0.07977908849716187,
          0.01467547845095396,
          0.17781223356723785,
          -0.13871639966964722,
          0.03630395978689194,
          0.05151105299592018,
          -0.14662756025791168,
          0.014837219379842281,
          -0.11325380206108093,
          -0.06644325703382492,
          -0.00923113338649273,
          0.13955903053283691,
          -0.19332954287528992,
          0.049754537642002106,
          -0.03014860302209854,
          -0.1030321717262268,
          -0.19355691969394684,
          0.09672725200653076,
          0.13128425180912018,
          -0.04154519736766815,
          0.0733196809887886,
          -0.0855843797326088,
          -0.12837572395801544,
          0.13172239065170288,
          -0.02297031693160534,
          0.06036243587732315,
          0.17911182343959808,
          0.03556269407272339,
          -0.12599213421344757,
          0.1400192379951477,
          -0.08615833520889282,
          -0.19866634905338287,
          0.06990937888622284,
          -0.033906709402799606,
          -0.055121298879384995,
          -0.19922488927841187,
          0.053299568593502045,
          0.15211835503578186,
          -0.013023748062551022,
          -0.08656492829322815,
          0.050095684826374054,
          0.1422473043203354,
          0.07085289061069489,
          0.0736638605594635,
          0.16898873448371887,
          -0.07755307853221893,
          0.046249400824308395,
          -0.050270769745111465,
          -0.13782106339931488,
          -0.18646252155303955,
          -0.11130699515342712,
          0.10565628856420517,
          -0.07703467458486557,
          0.04715247452259064,
          -0.1618003398180008,
          -0.055623967200517654,
          0.042246051132678986,
          -0.09944646060466766,
          0.19197726249694824,
          0.06144748255610466,
          0.042796790599823,
          -0.059467822313308716,
          -0.003223717212677002,
          -0.044072091579437256,
          0.036719635128974915,
          0.04390689730644226,
          -0.192482128739357,
          -0.06706458330154419,
          0.1571633666753769,
          -0.029230553656816483,
          -0.03396773710846901,
          -0.09622768312692642,
          -0.18811731040477753,
          -0.12574942409992218,
          -0.1875716596841812,
          -0.17688602209091187,
          -0.017618393525481224,
          0.11426194757223129,
          0.19951817393302917,
          0.058587245643138885,
          -0.07137207686901093,
          0.16595569252967834,
          -0.19654884934425354,
          0.05637313425540924,
          0.15833136439323425,
          -0.18434742093086243,
          -0.16040745377540588,
          0.04234221205115318,
          0.0298446211963892,
          0.09680107980966568,
          0.05391089990735054,
          -0.14345230162143707,
          -0.05238223820924759,
          0.030591579154133797,
          -0.11017594486474991,
          -0.007120522670447826,
          0.022478332743048668,
          -0.19752077758312225,
          0.17706386744976044,
          -0.060131900012493134,
          -0.1768578290939331,
          -0.01208747923374176,
          0.12364725023508072,
          0.026800544932484627,
          0.0494593009352684,
          -0.0060965800657868385,
          0.08875352889299393,
          -0.10473434627056122,
          0.05596201494336128,
          -0.13674594461917877,
          0.08936014771461487,
          0.033991288393735886,
          0.18073977530002594,
          0.19951266050338745,
          0.08780163526535034,
          0.07137956470251083,
          0.11366385966539383,
          0.08743933588266373,
          0.10001467168331146,
          -0.03426889702677727,
          0.021701820194721222,
          -0.029816076159477234,
          -0.0296616293489933,
          0.12829861044883728,
          -0.1919800341129303,
          0.08861558139324188,
          -0.06196971610188484,
          0.04261443391442299,
          -0.07193734496831894,
          0.13242259621620178,
          0.17085878551006317,
          0.07289355248212814,
          -0.11205976456403732,
          -0.11664797365665436,
          0.17535892128944397,
          0.04457241669297218,
          -0.133917897939682,
          0.04811011254787445,
          -0.11374981701374054,
          -0.07081466168165207,
          -0.0520012266933918,
          0.025975828990340233,
          0.018478883430361748,
          0.05867947265505791,
          -0.19303259253501892,
          0.095452219247818,
          -0.07939362525939941,
          -0.1749272346496582,
          -0.15449704229831696,
          -0.1676740050315857,
          -0.07501266896724701,
          0.10869716107845306,
          -0.01714763604104519,
          0.04553676396608353,
          -0.0047183712013065815,
          -0.06482893228530884,
          0.0957714393734932,
          -0.18440228700637817,
          0.034926753491163254,
          -0.19545376300811768,
          0.08953768014907837,
          0.1928640455007553,
          -0.1430210918188095,
          -0.005425661336630583,
          -0.16939356923103333,
          0.1681191623210907,
          -0.1302918940782547,
          -0.08887732028961182,
          0.008194205351173878,
          -0.042766205966472626,
          0.15586166083812714,
          0.14176981151103973,
          -0.07884500175714493,
          0.022137073799967766,
          -0.1935051530599594,
          0.11932150274515152,
          -0.04229957237839699,
          0.18411386013031006,
          0.0895000547170639,
          0.08684224635362625,
          0.07242749631404877,
          -0.04005167633295059,
          0.1546710580587387,
          0.19045349955558777,
          0.13144749402999878,
          -0.16767753660678864,
          -0.16100798547267914,
          -0.1688944697380066,
          -0.19808043539524078,
          -0.17490749061107635,
          0.03922998905181885,
          -0.15403153002262115,
          -0.035039857029914856,
          -0.13141071796417236,
          0.07692474871873856,
          0.08059178292751312,
          0.1869877725839615,
          -0.1271558552980423,
          -0.19856129586696625,
          -0.055831316858530045,
          0.15358522534370422,
          -0.1267687976360321,
          0.07247025519609451,
          0.02203688956797123,
          -0.05356619507074356,
          -0.1657458394765854,
          -0.046685878187417984,
          -0.09894823282957077,
          -0.006771404761821032,
          -0.058405570685863495,
          0.006178838666528463,
          -0.051727842539548874,
          -0.05472719669342041,
          -0.10829266160726547,
          -0.07283762842416763,
          0.17100092768669128,
          0.16966482996940613,
          0.06535228341817856,
          -0.1915137618780136,
          -0.05142512544989586,
          -0.1022668182849884,
          0.12002991139888763,
          -0.09202400594949722,
          0.11875053495168686,
          0.1797698736190796,
          -0.011537824757397175,
          0.11839882284402847,
          -0.11310665309429169,
          -0.018979951739311218,
          -0.06341719627380371,
          0.12438816577196121,
          -0.07394534349441528,
          0.06673985719680786,
          -0.0669163390994072,
          0.15606123208999634,
          -0.13842172920703888,
          0.06793688982725143,
          0.17008239030838013,
          -0.13676631450653076,
          -0.010610020719468594,
          0.06842903792858124,
          -0.10685072094202042,
          0.029433583840727806,
          0.07663784176111221,
          -0.02301052398979664,
          -0.038180653005838394,
          0.0031372348312288523,
          -0.03354432433843613,
          -0.05570446327328682,
          0.16708721220493317,
          0.06779351830482483,
          -0.14054806530475616,
          -0.07895146310329437,
          0.03836183249950409,
          0.07607147097587585,
          0.1305883377790451,
          0.18794411420822144,
          -0.016009313985705376,
          0.10847073793411255,
          -0.16436927020549774,
          -0.1647973656654358,
          -0.027698924764990807,
          -0.09754546731710434,
          0.18260826170444489,
          0.05084247887134552,
          -0.1254820078611374,
          -0.18339435756206512,
          -0.03273943439126015,
          0.04931754991412163,
          -0.038799259811639786,
          -0.1789783090353012,
          -0.1280817836523056,
          -0.13130606710910797,
          0.02779434062540531,
          -0.1550043821334839,
          0.05485010892152786,
          -0.13818585872650146,
          -0.06456862390041351,
          0.1786084920167923,
          0.021525628864765167,
          0.08466776460409164,
          0.00476440042257309,
          0.12626799941062927,
          0.0320516973733902,
          0.0004891284042969346,
          -0.0016489308327436447,
          -0.0744021087884903,
          -0.09420225769281387,
          -0.09217479825019836,
          -0.16453170776367188,
          -0.17518800497055054,
          -0.1584317684173584,
          0.12506774067878723,
          0.11007743328809738,
          -0.055401358753442764,
          -0.06792355328798294,
          0.008035161532461643,
          0.07070319354534149,
          0.15530985593795776,
          0.050660520792007446,
          0.18580518662929535,
          -0.09716620296239853,
          -0.13900257647037506,
          0.1805851310491562,
          -0.044892944395542145,
          0.08554574102163315,
          0.1868019700050354,
          -0.08223199844360352,
          0.0462379977107048,
          0.09254857897758484,
          0.08416125923395157,
          -0.15807199478149414,
          0.03521782159805298,
          0.12984821200370789,
          -0.12229707092046738,
          0.06843959540128708,
          0.07921253144741058,
          0.01660654880106449,
          -0.15033173561096191,
          -0.09633069485425949,
          0.015814868733286858,
          -0.16030044853687286,
          -0.1114724799990654,
          -0.043791137635707855,
          -0.1817961037158966,
          -0.1102476418018341,
          -0.1564001441001892,
          0.16507253050804138,
          -0.0984540581703186,
          -0.12051860988140106,
          0.16860312223434448,
          0.07052356749773026,
          -0.17317107319831848,
          -0.1310860812664032,
          -0.1406511664390564,
          0.08229845762252808,
          -0.16149422526359558,
          -0.12205187976360321,
          -0.18293027579784393,
          0.18440069258213043,
          -0.1352529078722,
          -0.19501280784606934,
          -0.06301138550043106,
          -0.08607491850852966,
          -0.043459393084049225,
          -0.045472510159015656,
          -0.12176331132650375,
          -0.13603131473064423,
          -0.10502714663743973,
          0.16771487891674042,
          -0.1583898663520813,
          0.08126422017812729,
          0.03119755908846855,
          0.1252191960811615,
          0.1885499358177185,
          0.1504341959953308,
          -0.17759336531162262,
          -0.1886708289384842,
          -0.07887743413448334,
          0.11885993927717209,
          0.19462044537067413,
          0.07979066669940948,
          -0.03226012364029884
        ],
        [
          0.09570745378732681,
          -0.011482342146337032,
          0.02790863625705242,
          -0.07638353854417801,
          0.07349568605422974,
          -0.1902315765619278,
          0.15159139037132263,
          0.04441636800765991,
          0.03540586307644844,
          0.03843824937939644,
          0.02975761890411377,
          0.02033805660903454,
          0.08140608668327332,
          -0.009500881657004356,
          0.17084439098834991,
          0.1712154597043991,
          -0.06587369740009308,
          -0.12348400801420212,
          -0.03651222586631775,
          -0.032077856361866,
          0.08603493869304657,
          0.14201252162456512,
          0.03627604991197586,
          0.16787002980709076,
          -0.06278838217258453,
          -0.14892928302288055,
          -0.17618730664253235,
          0.1944473832845688,
          0.1238112822175026,
          -0.0365745984017849,
          0.08140967041254044,
          -0.16842877864837646,
          0.19657231867313385,
          -0.16877490282058716,
          0.12954355776309967,
          0.09649434685707092,
          0.17369982600212097,
          0.11577783524990082,
          0.11006198823451996,
          0.08573071658611298,
          -0.06105703115463257,
          -0.060699712485075,
          -0.16475991904735565,
          -0.015253624878823757,
          -0.19536171853542328,
          0.002512703649699688,
          -0.18563337624073029,
          -0.14325618743896484,
          0.10292205214500427,
          -0.09924658387899399,
          0.12636813521385193,
          -0.1388367861509323,
          -0.046282194554805756,
          0.13051286339759827,
          -0.09879503399133682,
          -0.13295787572860718,
          -0.10906650871038437,
          -0.037663910537958145,
          -0.12743835151195526,
          -0.10528162121772766,
          -0.18664072453975677,
          -0.181961327791214,
          0.1119212731719017,
          -0.08912865072488785,
          -0.05305158719420433,
          0.00021176990412641317,
          -0.17889919877052307,
          -0.05006708949804306,
          0.013955697417259216,
          -0.006885208189487457,
          -0.11366104334592819,
          0.001830501714721322,
          0.07552265375852585,
          -0.088414266705513,
          -0.09868095815181732,
          -0.024911610409617424,
          -0.12652380764484406,
          0.03531802073121071,
          -0.09839362651109695,
          -0.017281103879213333,
          -0.058251578360795975,
          -0.1430957168340683,
          -0.10391363501548767,
          0.18880057334899902,
          -0.030187970027327538,
          0.15110637247562408,
          -0.14381399750709534,
          0.0369659848511219,
          0.12294483184814453,
          -0.17447185516357422,
          0.1941838264465332,
          0.015920627862215042,
          -0.16947565972805023,
          0.11402253061532974,
          0.027222448959946632,
          0.16076339781284332,
          -0.002422844059765339,
          0.12167401611804962,
          -0.11094165593385696,
          0.1774297058582306,
          0.09654545783996582,
          -0.14769551157951355,
          -0.029279014095664024,
          0.04733486846089363,
          -0.12882502377033234,
          -0.18812188506126404,
          -0.14743606746196747,
          -0.040758758783340454,
          0.04919668659567833,
          0.18156354129314423,
          -0.07718122750520706,
          -0.12160801887512207,
          -0.019199302420020103,
          -0.006016042549163103,
          0.06540656834840775,
          -0.0832206979393959,
          -0.10274183750152588,
          0.039196524769067764,
          0.047354936599731445,
          0.08546774089336395,
          -0.12663708627223969,
          -0.08314575999975204,
          -0.14297015964984894,
          -0.11293662339448929,
          0.1905764788389206,
          0.043419402092695236,
          -0.19247618317604065,
          -0.152908593416214,
          -0.1646030694246292,
          0.15171295404434204,
          0.16021296381950378,
          0.17499563097953796,
          -0.17339631915092468,
          -0.09514889866113663,
          0.05379456654191017,
          0.029794014990329742,
          -0.02859366312623024,
          -0.15841753780841827,
          0.1352377086877823,
          0.06362668424844742,
          -0.06348641961812973,
          0.1825975626707077,
          0.0048008752055466175,
          0.0827559381723404,
          -0.10935184359550476,
          -0.031978923827409744,
          -0.016809117048978806,
          -0.015481272712349892,
          -0.19446896016597748,
          -0.17758487164974213,
          0.06376335024833679,
          0.16207489371299744,
          0.12960581481456757,
          -0.12476569414138794,
          0.026653503999114037,
          0.06683643162250519,
          0.19202986359596252,
          0.01933346502482891,
          -0.04537038505077362,
          0.10440519452095032,
          0.022585205733776093,
          0.0476517416536808,
          -0.079618901014328,
          -0.08638127148151398,
          -0.10312353819608688,
          -0.07865452766418457,
          -0.1848497837781906,
          0.07772340625524521,
          0.18241308629512787,
          0.17587240040302277,
          0.12378428131341934,
          -0.009023058228194714,
          -0.09258660674095154,
          -0.12305645644664764,
          -0.028968118131160736,
          0.0726529061794281,
          0.01398601196706295,
          0.014562535099685192,
          -0.1751047819852829,
          -0.1034027710556984,
          -0.17936010658740997,
          0.022870806977152824,
          0.17042987048625946,
          -0.08360465615987778,
          -0.04780130833387375,
          0.026196705177426338,
          0.0641024112701416,
          -0.057396017014980316,
          0.07776129245758057,
          -0.11751020699739456,
          0.0894353836774826,
          -0.13251057267189026,
          -0.08783524483442307,
          -0.1802830547094345,
          0.03480210900306702,
          0.047162123024463654,
          0.13172069191932678,
          0.014612382277846336,
          -0.1488398015499115,
          0.1475197672843933,
          -0.07914308458566666,
          0.13573791086673737,
          -0.03195521607995033,
          -0.13520611822605133,
          0.04261019825935364,
          -0.11706150323152542,
          -0.07705150544643402,
          -0.19228829443454742,
          0.1740822046995163,
          0.0038181059062480927,
          0.19273021817207336,
          -0.1109713464975357,
          0.02335338294506073,
          -0.09775639325380325,
          -0.11872418969869614,
          -0.11117353290319443,
          -0.020732838660478592,
          0.0650622770190239,
          0.015625,
          -0.059887927025556564,
          -0.18903186917304993,
          0.17426806688308716,
          0.10062693804502487,
          0.0143856480717659,
          0.13805393874645233,
          -0.159405916929245,
          -0.027990302070975304,
          0.017510127276182175,
          0.18414564430713654,
          0.1533067524433136,
          -0.0664479210972786,
          -0.1538579761981964,
          0.19739314913749695,
          -0.11465300619602203,
          0.12165255099534988,
          -0.09340572357177734,
          0.13087913393974304,
          -0.006046603433787823,
          -0.06492599099874496,
          0.08835822343826294,
          -0.07118145376443863,
          0.03267582505941391,
          -0.02041471190750599,
          -0.12318907678127289,
          0.10293925553560257,
          -0.023205142468214035,
          -0.027869926765561104,
          0.01725582964718342,
          -0.12345535308122635,
          0.11353091895580292,
          0.019284993410110474,
          -0.1837753802537918,
          -0.06498724967241287,
          0.18818630278110504,
          -0.13446927070617676,
          -0.10015904158353806,
          0.06489914655685425,
          0.12152564525604248,
          -0.033614758402109146,
          -0.0557345487177372,
          -0.1354159563779831,
          0.0790754109621048,
          -0.007478955201804638,
          -0.07859071344137192,
          0.13693098723888397,
          -0.13775897026062012,
          0.11004669964313507,
          0.0942310020327568,
          -0.04730335250496864,
          -0.17154580354690552,
          0.08356666564941406,
          0.009032710455358028,
          0.034056104719638824,
          0.07017292827367783,
          0.02177078276872635,
          0.013652173802256584,
          -0.11022345721721649,
          -0.06308362632989883,
          -0.09186878800392151,
          -0.12491357326507568,
          0.17523948848247528,
          -0.10079458355903625,
          -0.16708002984523773,
          -0.10199107974767685,
          0.1128716915845871,
          0.12942446768283844,
          -0.04223582148551941,
          -0.1282152235507965,
          0.048557065427303314,
          -0.08904525637626648,
          -0.050900280475616455,
          0.09747698158025742,
          0.13453258574008942,
          0.11524008214473724,
          0.18455640971660614,
          0.15780757367610931,
          0.19300486147403717,
          0.18347318470478058,
          -0.07224171608686447,
          -0.06525448709726334,
          0.0995982214808464,
          0.12196104973554611,
          0.16589373350143433,
          -0.18400828540325165,
          -0.08119634538888931,
          0.19187654554843903,
          0.09462454915046692,
          -0.15850022435188293,
          0.004247648641467094,
          0.019636165350675583,
          0.07447440177202225,
          -0.08431702852249146,
          -0.02703591249883175,
          -0.03926563635468483,
          -0.19317378103733063,
          -0.1840292066335678,
          0.06038401648402214,
          0.12310773879289627,
          -0.018701687455177307,
          -0.06496069580316544,
          -0.06094737350940704,
          -0.04418422654271126,
          -0.07796738296747208,
          -0.03830018267035484,
          -0.008687871508300304,
          0.06035289168357849,
          0.12523296475410461,
          -0.1314300149679184,
          -0.04933753237128258,
          0.04221135377883911,
          -0.03804789483547211,
          0.08504697680473328,
          -0.17258478701114655,
          -0.1645432561635971,
          -0.14939351379871368,
          -0.08918531239032745,
          -0.09186951071023941,
          -0.18232181668281555,
          0.07019670307636261,
          -0.18716266751289368,
          -0.01841248944401741,
          -0.09044456481933594,
          0.1780593991279602,
          0.11269707977771759,
          0.07847964763641357,
          -0.07262485474348068,
          0.011562318541109562,
          0.12356849759817123,
          -0.19250741600990295,
          0.04019106552004814,
          0.11697535961866379,
          0.022905271500349045,
          -0.18871384859085083,
          -0.022048255428671837,
          0.13657306134700775,
          -0.1247851774096489,
          -0.09910109639167786,
          0.02614595927298069,
          0.04477663338184357,
          0.019358817487955093,
          0.08359462767839432,
          -0.028986290097236633,
          0.12900161743164062,
          0.02058747038245201,
          0.09390944987535477,
          -0.1320899873971939,
          0.13741745054721832,
          -0.17042069137096405,
          -0.06593452394008636,
          0.10986025631427765,
          0.0025274110957980156,
          0.19267213344573975,
          0.15423592925071716,
          -0.12444660067558289,
          0.02793358452618122,
          0.1947018951177597,
          -0.033578161150217056,
          -0.13528531789779663,
          0.1179029643535614,
          0.13710318505764008,
          -0.004588783718645573,
          -0.028125038370490074,
          0.004934754688292742,
          0.07284258306026459,
          0.10049892961978912,
          0.17355850338935852,
          0.10417059063911438,
          -0.024272188544273376,
          0.18067887425422668,
          -0.0015077849384397268,
          0.10411258041858673,
          0.1075306311249733,
          0.11349685490131378,
          0.19922414422035217,
          0.017297687008976936,
          0.0757792592048645,
          -0.06906737387180328,
          -0.12411116063594818,
          0.18083536624908447,
          0.18675000965595245,
          0.1653161644935608,
          0.16044177114963531,
          -0.1446537971496582,
          -0.13299530744552612,
          0.035951413214206696,
          -0.029195260256528854,
          0.16707539558410645,
          -0.03353717550635338,
          0.05733589455485344,
          -0.13199226558208466,
          -0.1123904287815094,
          -0.0008509932085871696,
          -0.13914422690868378,
          -0.0037323213182389736,
          -0.04500507190823555,
          -0.10889129340648651,
          0.17724919319152832,
          0.10333163291215897,
          -0.1590510755777359,
          -0.18547369539737701,
          -0.13403405249118805,
          0.03232865035533905,
          0.16379088163375854,
          0.11793899536132812,
          0.0788513645529747,
          -0.14146941900253296,
          0.07808668911457062,
          0.0900445505976677,
          -0.13884732127189636,
          -0.10979287326335907,
          -0.1297423392534256,
          -0.17964905500411987,
          0.11377377063035965,
          -0.033788688480854034,
          -0.0007980218506418169,
          0.042563293129205704,
          -0.16255728900432587,
          0.13730745017528534,
          -0.12895648181438446,
          0.07262169569730759,
          -0.10225819051265717,
          -0.002296546008437872,
          -0.016510428860783577,
          0.11118652671575546,
          0.07254969328641891,
          0.08938274532556534,
          0.09911122918128967,
          0.10456091165542603,
          0.15165604650974274,
          0.11617106199264526,
          -0.13736353814601898,
          -0.18582025170326233,
          0.156319722533226,
          -0.043443888425827026,
          -0.05329830199480057,
          -0.12479770183563232,
          0.08915002644062042,
          0.003769754199311137,
          0.11044204235076904,
          -0.18861094117164612,
          -0.03980019688606262,
          -0.13908371329307556,
          0.06883611530065536,
          -0.09733756631612778,
          0.14627675712108612,
          -0.17060863971710205,
          0.01054893434047699,
          0.07510057091712952,
          -0.09360494464635849,
          0.17407771944999695,
          0.010851617902517319,
          -0.048245254904031754,
          0.03501421585679054,
          -0.14810118079185486,
          -0.0828857272863388,
          0.16668425500392914,
          0.05459900572896004,
          0.12028195708990097,
          0.09851032495498657,
          -0.0684230700135231,
          -0.0946626216173172,
          -0.11149964481592178,
          0.12631085515022278,
          0.08111461251974106,
          -0.05377956107258797,
          0.18783435225486755,
          -0.013136963360011578,
          -0.050647296011447906,
          -0.08410593122243881,
          0.04022795334458351,
          0.05600395053625107,
          -0.15910448133945465,
          -0.040480468422174454,
          0.14830811321735382,
          -0.08880600333213806,
          0.13169628381729126,
          0.14879435300827026,
          0.18906614184379578,
          0.09205131232738495,
          -0.18555140495300293,
          0.048755448311567307,
          0.027987241744995117,
          -0.11726435273885727,
          -0.042340632528066635,
          -0.1525365561246872,
          -0.0016378267901018262,
          0.07830769568681717,
          -0.08896878361701965,
          0.12410327047109604,
          0.06368936598300934,
          -0.1853417605161667,
          0.17730283737182617,
          -0.06000379100441933,
          0.011685327626764774,
          0.17473624646663666,
          0.05799931287765503,
          0.00683001521974802,
          0.1674303412437439,
          0.09963639825582504,
          -0.044360414147377014,
          -0.1729426383972168,
          -0.04044591635465622,
          -0.12485191971063614,
          0.0660710260272026,
          -0.16041482985019684,
          -0.11893114447593689,
          -0.17401091754436493,
          0.0037826169282197952,
          0.09728946536779404,
          0.09101008623838425,
          0.12823888659477234,
          -0.0005344133824110031,
          -0.030571086332201958,
          -0.010373536497354507,
          0.1160670593380928,
          -0.1352998912334442,
          -0.11841055750846863,
          0.12708677351474762,
          0.03924398496747017,
          -0.10360458493232727,
          0.13843834400177002,
          0.08537430316209793,
          0.10784486681222916,
          0.11253097653388977,
          -0.1810455620288849,
          0.1449950784444809,
          0.059148579835891724,
          0.12232902646064758,
          0.07918521761894226,
          -0.08353344351053238,
          -0.038935042917728424,
          0.15741176903247833,
          -0.18899200856685638,
          -0.04560691490769386,
          0.19252675771713257,
          -0.11310094594955444,
          0.17089113593101501,
          -0.10003476589918137,
          0.06378310173749924,
          -0.18605975806713104,
          0.13918812572956085,
          0.19635944068431854,
          0.1613968163728714,
          0.11435530334711075,
          0.11487455666065216,
          -0.16924579441547394,
          -0.19731177389621735,
          -0.0883631706237793,
          -0.09035517275333405,
          0.032023657113313675,
          -0.04675467312335968,
          -0.016185836866497993,
          -0.1831396371126175,
          -0.05507384613156319,
          0.105178102850914,
          -0.07089730352163315,
          0.10279425233602524,
          -0.18511366844177246,
          -0.17489895224571228,
          -0.13098759949207306,
          0.0027629367541521788,
          0.06470369547605515,
          -0.05074714869260788,
          -0.06657195836305618,
          -0.11568831652402878,
          0.16932779550552368,
          -0.12581674754619598,
          -0.14748001098632812,
          -0.16192156076431274,
          0.010498348623514175,
          0.19323301315307617,
          0.02057420276105404,
          -0.08689749240875244,
          -0.14814943075180054,
          0.08900458365678787,
          0.19980083405971527,
          0.04973264038562775,
          0.08509059995412827,
          0.17572863399982452,
          -0.05993032455444336,
          0.06347049027681351,
          -0.12052614986896515,
          0.0016164182452484965,
          -0.020229415968060493,
          0.003355611814185977,
          -0.05175803229212761,
          0.16721941530704498,
          -0.06650571525096893,
          0.0021088088396936655,
          -0.09983000159263611,
          0.07517688721418381,
          0.15501418709754944,
          0.14342868328094482,
          0.06770621985197067,
          0.052307259291410446,
          -0.009526689536869526,
          -0.013202535919845104,
          0.06303242594003677,
          -0.038584139198064804,
          0.09720718860626221,
          0.09259079396724701,
          -0.15692773461341858,
          0.05517446622252464,
          -0.05114128440618515,
          0.11800828576087952,
          -0.08093888312578201,
          0.06733079254627228,
          0.1635063737630844,
          0.14021477103233337,
          -0.1626780927181244,
          -0.19385749101638794,
          0.1987735480070114,
          0.09241319447755814,
          0.019804231822490692,
          -0.03479853644967079,
          0.17165592312812805,
          -0.1580590456724167,
          -0.006458295043557882,
          0.19314587116241455,
          -0.07961474359035492,
          0.007303422782570124,
          0.16149257123470306,
          0.15079329907894135,
          0.18534450232982635,
          -0.12117167562246323,
          0.004641705192625523,
          -0.10808771848678589,
          -0.17321300506591797,
          0.01927393488585949,
          -0.14600637555122375,
          -0.13939593732357025,
          -0.0639905110001564,
          -0.17093896865844727,
          -0.03618653118610382,
          0.13105207681655884,
          0.1083405539393425,
          -0.1436133086681366,
          0.035067349672317505,
          0.10651955753564835,
          0.1308412104845047,
          -0.18509063124656677,
          0.007165613118559122,
          0.16052992641925812,
          0.1607481688261032,
          0.111094631254673,
          0.17991890013217926,
          0.06763412058353424,
          0.11120472848415375,
          -0.02982417121529579,
          0.005440195556730032,
          0.12457837164402008,
          -0.02479957975447178,
          0.06823847442865372,
          -0.11609820276498795,
          -0.06791943311691284,
          -0.06128218024969101,
          0.02257334627211094,
          0.18949976563453674,
          -0.021796122193336487,
          0.10625488311052322,
          0.16296567022800446,
          0.10346594452857971,
          0.14582529664039612,
          -0.012290311977267265,
          -0.1368798166513443,
          -0.12523095309734344,
          -0.09229089319705963,
          0.10534082353115082,
          -0.13441798090934753,
          0.19547399878501892,
          -0.0027425619773566723,
          -0.003882847959175706,
          0.1754244565963745,
          -0.06470264494419098,
          -0.04445410147309303,
          0.19077059626579285,
          0.11247073858976364,
          0.12786974012851715,
          0.16197550296783447,
          -0.10652236640453339,
          -0.06035842373967171,
          -0.16749954223632812,
          0.07174341380596161,
          0.11232677102088928,
          -0.10725845396518707,
          0.08790885657072067,
          -0.11110176146030426,
          0.024037355557084084,
          -0.019878767430782318,
          -0.017244398593902588,
          -0.10716810822486877,
          -0.07678740471601486,
          -0.09727314114570618,
          0.13041481375694275,
          0.1831505000591278,
          -0.10021192580461502,
          -0.13482141494750977,
          0.14687395095825195,
          -0.1693641096353531,
          -0.18343272805213928,
          0.060105130076408386,
          -0.1568717062473297,
          -0.15239211916923523,
          -0.05017164349555969,
          -0.00612378865480423,
          0.08654698729515076,
          -0.1484207957983017,
          -0.08860614150762558,
          -0.08475244790315628,
          0.05753599852323532,
          0.14534291625022888,
          -0.061850834637880325,
          0.019993579015135765,
          0.022082578390836716,
          -0.06074463576078415,
          0.13030029833316803,
          0.007705385331064463,
          0.01246694941073656,
          -0.006259390152990818,
          0.17457091808319092,
          -0.19415944814682007,
          -0.1451498568058014,
          0.004495782777667046,
          -0.012434296309947968,
          0.10572829842567444,
          -0.14848332107067108,
          -0.08547559380531311,
          0.11562750488519669,
          -0.08120730519294739,
          0.0951884537935257,
          0.044439226388931274,
          -0.18423664569854736,
          -0.07874409109354019,
          0.004989378619939089,
          0.12245918810367584,
          -0.1595114916563034,
          0.15949396789073944,
          -0.1777263581752777,
          -0.009190533310174942,
          -0.15875209867954254,
          -0.08853170275688171,
          -0.03824975714087486,
          -0.010177908465266228,
          -0.09297819435596466,
          -0.1601117104291916,
          0.12181674689054489,
          -0.08689606934785843,
          0.05317173898220062,
          -0.19005361199378967,
          0.05710712447762489,
          0.13985490798950195,
          -0.07709845155477524,
          -0.05735943838953972,
          0.18422558903694153,
          -0.014596616849303246,
          0.1630275696516037,
          -0.12547478079795837,
          0.06936338543891907,
          0.03306031972169876,
          0.026345906779170036,
          -0.06035872548818588,
          0.06959719955921173,
          0.1951627880334854,
          -0.11140947788953781,
          -0.11043104529380798,
          -0.18252046406269073,
          -0.02797205001115799,
          -0.1169518381357193,
          0.027353908866643906,
          -0.07133503258228302,
          -0.046638332307338715,
          0.04830242320895195,
          -0.060959767550230026,
          0.17060519754886627,
          0.14666922390460968,
          -0.08386031538248062,
          0.18140621483325958,
          -0.06149620935320854,
          0.03522917255759239,
          -0.18015612661838531,
          0.07978413999080658,
          0.1967020034790039,
          -0.019821809604763985,
          -0.07617328315973282,
          -0.13776765763759613,
          0.13121260702610016,
          -0.16465850174427032,
          0.09073761850595474,
          -0.033765025436878204,
          0.03228257596492767,
          -0.1447829008102417,
          0.17030440270900726,
          -0.030658360570669174,
          -0.025464365258812904,
          0.11998341977596283,
          -0.0142638785764575,
          0.09463580697774887,
          -0.008682990446686745,
          0.03333721682429314,
          0.051997195929288864,
          0.0815282016992569,
          -0.1979188621044159,
          0.03448888286948204,
          0.07996047288179398,
          0.09214375913143158,
          0.19756971299648285,
          0.040106065571308136,
          0.02508212812244892,
          0.15869909524917603,
          0.17411993443965912,
          0.12373198568820953,
          0.19900226593017578,
          0.1819327175617218,
          -0.10065319389104843,
          -0.028524545952677727,
          0.13615328073501587,
          0.07926039397716522,
          0.08685702830553055,
          0.07920408248901367,
          0.1853966861963272,
          -0.10317043960094452,
          0.11928518116474152,
          -0.06589695066213608,
          -0.06471136212348938,
          -0.020331382751464844,
          0.0027322531677782536,
          0.16525261104106903,
          0.03968242555856705,
          0.16510923206806183,
          -0.005105866119265556,
          -0.13807718455791473,
          -0.011673765257000923,
          0.15276919305324554,
          -0.023985715582966805,
          -0.007756329607218504,
          -0.11421685665845871,
          0.13017192482948303,
          -0.08703644573688507,
          0.11312051862478256,
          0.09582581371068954,
          -0.12201067805290222,
          -0.07240255922079086,
          -0.02368706464767456,
          0.0068222093395888805,
          -0.1426074057817459,
          0.022704944014549255,
          -0.10016307979822159,
          -0.16191180050373077,
          0.10609930008649826,
          -0.03194599598646164,
          0.04950377345085144,
          0.11717934906482697,
          0.15239013731479645,
          0.16981066763401031,
          0.12907154858112335,
          0.1961478739976883,
          -0.1272074580192566,
          -0.19884952902793884,
          -0.17860724031925201,
          -0.15225279331207275,
          -0.0621519610285759,
          -0.04784291982650757,
          -0.15981072187423706,
          -0.12619005143642426,
          -0.004314283840358257,
          0.11263011395931244,
          -0.14931903779506683,
          -0.013269422575831413,
          -0.041917625814676285,
          0.019257497042417526,
          -0.1627012938261032,
          0.017721228301525116,
          -0.12283718585968018,
          -0.1128559410572052,
          -0.01745457574725151,
          -0.07007771730422974,
          0.12323398888111115,
          0.13558894395828247,
          0.14234119653701782,
          0.08483344316482544,
          0.06042347475886345,
          0.06523774564266205,
          -0.05523999407887459,
          0.06029904633760452,
          0.01335597038269043,
          0.008253680542111397,
          0.02107810787856579,
          -0.12338976562023163,
          -0.11901980638504028,
          -0.19959163665771484,
          -0.05608094856142998,
          0.13359996676445007,
          -0.1390683352947235,
          0.03459442779421806,
          -0.09158279001712799,
          0.08266538381576538,
          0.1264108568429947,
          -0.027680933475494385,
          0.14947578310966492,
          -0.0955841988325119,
          -0.1484079211950302,
          0.19118770956993103,
          0.04721607267856598,
          0.06433811038732529,
          -0.18867681920528412,
          0.16273434460163116,
          0.09908352047204971,
          0.19051136076450348,
          -0.08479642122983932,
          0.10529498755931854,
          -0.04382046312093735,
          -0.11683262139558792,
          -0.11608356982469559,
          -0.054215382784605026,
          0.03057541325688362,
          -0.10436586290597916,
          -0.19240780174732208,
          0.1580832451581955,
          -0.07210987061262131,
          0.07421059161424637,
          -0.03561323881149292,
          -0.06484676152467728,
          -0.129485622048378,
          0.18989986181259155,
          -0.12269514054059982,
          0.05494261160492897,
          -0.16024431586265564,
          0.08189629763364792,
          -0.08176784217357635,
          0.13457143306732178,
          0.00866398960351944,
          -0.15962359309196472,
          -0.034643661230802536,
          0.05041807144880295,
          0.1979435384273529,
          0.1606418639421463,
          -0.02037789300084114,
          -0.01433961745351553,
          -0.041702620685100555,
          -0.0784335508942604,
          0.08017760515213013,
          -0.028240056708455086,
          0.0076835984364151955,
          0.14203590154647827,
          -0.11677372455596924,
          -0.11194871366024017,
          -0.12807020545005798,
          -0.0092421043664217,
          -0.13095277547836304,
          0.005400732159614563,
          -0.006984089035540819,
          0.15630459785461426,
          0.012813339941203594,
          -0.1603730022907257,
          0.08640410006046295,
          0.11141107231378555,
          0.012655104510486126,
          -0.014257357455790043,
          0.05626697838306427,
          -0.05393587797880173,
          0.1218198910355568,
          0.12372993677854538,
          -0.14118359982967377,
          0.047316454350948334,
          0.024131007492542267,
          -0.10834690183401108,
          0.05046539381146431,
          -0.013247378170490265,
          0.13989174365997314,
          0.1149885505437851,
          0.17650306224822998,
          0.06757637858390808,
          0.17490878701210022,
          -0.13364684581756592,
          -0.026983465999364853,
          0.11672753095626831,
          -0.17277702689170837,
          0.06704989075660706,
          -0.15191160142421722,
          0.1390170454978943,
          -0.09924296289682388,
          0.0898735523223877,
          -0.14146381616592407,
          -0.16797159612178802,
          -0.1942104995250702,
          0.12637774646282196,
          0.06657615303993225,
          0.12241195142269135,
          -0.1267462819814682,
          0.04802045598626137,
          0.01096920296549797,
          -0.006955782417207956,
          0.061680518090724945,
          -0.08224539458751678,
          0.05235476791858673,
          -0.1175040677189827,
          -0.17341360449790955,
          0.12062061578035355,
          -0.007619792129844427,
          0.10117919743061066,
          -0.131618931889534,
          -0.047743864357471466,
          -0.06376178562641144,
          0.09243959188461304
        ],
        [
          -0.1786096841096878,
          -0.013095935806632042,
          -0.08690919727087021,
          0.01213477086275816,
          0.04500975459814072,
          -0.020942479372024536,
          0.17700888216495514,
          0.09391618520021439,
          -0.14293186366558075,
          0.025056513026356697,
          -0.18575714528560638,
          0.06279154866933823,
          0.13058914244174957,
          0.19432516396045685,
          0.031035957857966423,
          -0.029107145965099335,
          -0.12537233531475067,
          -0.1836787909269333,
          0.17462658882141113,
          -0.1253206431865692,
          0.03617067262530327,
          0.030250268056988716,
          0.026257039979100227,
          0.036108456552028656,
          -0.008455861359834671,
          -0.01405072957277298,
          -0.06328633427619934,
          0.16756337881088257,
          0.039188846945762634,
          -0.017171375453472137,
          0.12587885558605194,
          0.14495514333248138,
          -0.0948885828256607,
          0.018525520339608192,
          -0.18369080126285553,
          -0.12482855468988419,
          0.09469512850046158,
          0.11977335810661316,
          -0.04870652034878731,
          -0.16347303986549377,
          0.05003524199128151,
          -0.016899222508072853,
          -0.12995845079421997,
          -0.0008857579668983817,
          0.04180748388171196,
          0.07562904804944992,
          -0.10090720653533936,
          0.18475009500980377,
          -0.07142913341522217,
          0.0572446770966053,
          0.11940941959619522,
          0.05635008588433266,
          0.16563889384269714,
          0.19899816811084747,
          -0.19102060794830322,
          0.13773077726364136,
          -0.1397876888513565,
          -0.00492267869412899,
          0.07863782346248627,
          0.1801684945821762,
          0.04903014749288559,
          0.1902020126581192,
          0.06924408674240112,
          0.008944027125835419,
          -0.0663263350725174,
          -0.1498306393623352,
          0.1162634789943695,
          -0.16687089204788208,
          -0.06130661070346832,
          0.18142719566822052,
          0.14870880544185638,
          0.09688574075698853,
          -0.07155562192201614,
          0.14599014818668365,
          0.0694119855761528,
          -0.14557096362113953,
          -0.03436984866857529,
          -0.019348779693245888,
          -0.07249762117862701,
          -0.15013854205608368,
          0.0974859967827797,
          -0.0956280305981636,
          -0.17173419892787933,
          -0.17348910868167877,
          -0.04659488797187805,
          0.03181331232190132,
          0.19288533926010132,
          0.06456157565116882,
          -0.09036916494369507,
          -0.19415897130966187,
          -0.03793707862496376,
          -0.12175491452217102,
